5 1 2
5 10 3 1 
1.683269178 1.261765342 -0.400300307 -0.908795824 -2.140289259 0.246388966 -0.803193680 -1.134005383 -0.916712116 -0.671738640 -0.499706529 2.421562108 -2.381054731 -1.783695727 0.352956069 1.629989269 3.053535828 -0.837806466 -1.479773977 -1.017922181 -0.295147946 0.042806018 1.623145756 0.169190465 0.411037561 -1.236697000 -2.843068870 -4.095322629 -5.468984846 1.025652692 0.670021809 0.030679014 -0.750529984 -1.522640023 -2.381191619 3.683662185 1.434750628 0.065124307 -1.015840570 -2.056266002 -2.270702659 3.835282500 1.392051909 1.478341705 1.686358919 1.124152305 0.383908069 -2.393121916 -2.277402564 -1.492781671 -0.281015738 0.512925836 1.326072113 -0.162707592 -0.885354878 -0.329654925 -0.742083947 -0.121383618 -0.001640620 0.426019661 
-2.267786235 1.549096782 2.921098345 2.505414984 -3.788748662 -1.065091634 -0.909621976 1.903916548 3.224193482 1.357574114 0.865978367 -2.908301751 -3.559697971 5.113293676 0.226637496 -1.132876836 -4.712766532 -4.945436856 2.582470382 1.345031083 -0.522701508 -0.713423747 -0.476621680 -1.622770598 1.480751210 0.478402575 -0.235669904 -0.412676465 -0.963159857 2.255403707 0.086207714 -0.242899017 0.373008545 
7.964692937 9.587737324 3.083983412 -8.975266382 
